iteration,logZs,elbos,Ts
10,-1.7171450434824924,-2.2533152637350673,12
20,-1.8256136689517786,-2.3304750731109465,16
30,-1.5969732648813204,-1.9832439345254176,16
40,-1.68367181097494,-2.142170684994129,16
50,-1.223065987500723,-1.8644417496496664,17
60,-1.5703996514697678,-2.295872309588062,15
70,-1.1911195038541726,-1.8622319110639882,14
80,-1.6144981060868324,-2.1269297768546793,19
90,-1.2882485841342879,-1.8083418464009706,18
100,-1.8183069180042806,-2.3787187878162928,9
110,-1.3917173155057156,-2.1537232151274055,15
120,-1.2713848462857182,-2.2812487422950034,13
130,-2.1996285894574115,-2.2895129721719463,16
140,-2.03410072971377,-2.940218997972747,13
150,-1.9829680038782267,-2.1447043909028682,15
160,-1.6682011553013405,-2.057968113769782,18
170,-1.4899933206695015,-1.8675758566260863,17
180,-1.793516987556938,-1.9575325889443547,18
190,-1.4752163414281851,-2.2727059628150257,14
200,-1.5471718710152962,-2.0036690946844433,16
210,-1.7974057933822642,-2.086445624917368,15
220,-0.5843995766467764,-1.9861608247919833,20
230,-1.6948470611006352,-2.0738771457695444,12
240,-1.8720150696315434,-2.1869377056750614,14
250,-1.743330118337261,-2.0444929300954815,20
260,-1.8269876476192262,-2.0232121221623767,25
270,-1.8379101444480224,-2.091643401310592,24
280,-0.661537268993377,-1.820902311157049,13
290,-1.9514827293341654,-2.172280737054026,11
300,-1.9291060864843677,-2.1697879653168055,13
310,-1.8082563158360005,-2.2290181904368356,11
320,-1.579167237346451,-2.0337788564114065,12
330,-1.7266893447914238,-2.162679525803864,11
340,-1.7361998098604552,-2.1100563944603943,18
350,-1.7446421197143613,-1.9436261254019542,28
360,-1.9804080031555575,-2.529753745378932,13
370,-1.9357176091873582,-2.2504343936770645,20
380,-1.9947706760922506,-2.136790330846017,14
390,-1.3330212695705899,-2.2716960598317306,13
400,-1.5560471300327163,-2.0429577840891504,19
410,-1.5035940564396006,-2.0276258337342754,17
420,-1.854418675787414,-2.0814938128412286,15
430,-2.06093307045574,-2.3721156043078517,12
440,-0.7455043161424495,-2.1455403438523417,14
450,-1.4528182413725745,-2.152762379320649,16
460,-0.9422254392820175,-2.099451852709775,17
470,-1.7639335389866413,-2.114246985436178,16
480,-1.58506507580587,-2.039302097352525,20
490,-1.5289958610367569,-1.886586151837175,15
500,-1.6228401985348946,-2.304261185495716,18
510,-1.8046688896390617,-2.3176867003089296,23
520,-1.6120455036796968,-2.0141203795621143,14
530,-1.7946267729481895,-2.2687475594279882,18
540,-2.0631689226479155,-2.285827685892027,12
550,-2.0237567557262786,-2.2037264950458315,19
560,-1.6075360451936422,-1.9759976572427729,15
570,-1.644591336064221,-2.2288869598880257,13
580,-1.7447254449652934,-2.012315568229434,14
590,-1.2022396332780598,-1.9029829205503692,16
600,-0.5286322302894364,-1.5395078861881768,19
610,-1.6696659757361496,-1.9366435486325075,29
620,-1.8247023413872205,-2.0942000679567423,13
630,-1.6808162147568577,-2.134179034517851,22
640,-1.9432177046558938,-2.0673995728608165,18
650,-1.94927424246893,-2.26054328076737,16
660,-0.8025503052643339,-1.927342431102713,15
670,-1.0580247345302678,-1.6802909569632762,19
680,-1.801460526308885,-2.0472549597765384,23
690,-0.7304035360802943,-1.726642918359025,17
700,-1.6452200856975399,-2.3421033272668907,12
710,-1.407441370552132,-2.0283973477907327,21
720,-1.8535525033812006,-2.078394865880869,16
730,-1.737418925788069,-2.217691352098989,11
740,-0.025302368315642365,-1.7811275898379026,18
750,-1.600581766928455,-2.0569162785925323,14
760,-1.8504861381628097,-2.439792970842932,15
770,-0.6210822452569591,-1.9611620888515016,15
780,-1.2245901058041073,-2.100213928806989,17
790,-1.5691778092527526,-2.0977670298336624,17
800,-1.6175673752836432,-2.046454069651351,16
810,-1.297663919384366,-1.9199957574291102,12
820,-0.7042055240064795,-2.198764545033449,10
830,-1.6564600069607514,-2.1084042868679274,17
840,-1.9180194113377513,-2.252604116169396,17
850,-1.9674206013108648,-2.3125602419236695,17
860,-2.1577927976740687,-2.438102051272061,14
870,-1.383823737768541,-2.581413950590942,14
880,-1.0639330120861725,-1.931325547129285,13
890,-1.8455550541785333,-2.0727367640998753,22
900,-1.4328784638482555,-2.036713114165891,25
910,-1.510474719934121,-1.9664769763523426,18
920,-0.6809386368765256,-2.1572499635478004,11
930,-1.4965492393787434,-1.9517738570711676,16
940,-1.504196279084151,-2.387119463248324,14
950,-0.9225703339267954,-2.2437610231363583,16
960,-1.9785423259751347,-2.4449070620553113,15
970,-1.6655182123479932,-2.2763324747136267,20
980,-0.8494039938815741,-2.022082458185202,15
990,-1.717229333374487,-2.0176171145453394,15
1000,-1.793133176023583,-1.973966385713242,14
1010,-1.9047535127703465,-2.392717966543169,17
1020,-1.8984434457532373,-2.0004212677733975,17
1030,1.2673810896702098,-1.702686179332138,15
1040,-1.944796432114806,-2.0728628512500173,17
1050,1.3861977278063944,-2.2018571288088333,14
1060,-1.2699411762153097,-2.0402008993597036,14
1070,-1.2291842097487269,-2.0804671511536155,16
1080,-1.7915285805256815,-2.291115937068904,14
1090,-1.6744433992588665,-2.230960794955383,13
1100,-1.9666121450758451,-2.1461548796163092,14
1110,-2.0187326473773948,-2.259234883514368,17
1120,-2.186659099617089,-2.496958212496709,12
1130,-1.6377944275494125,-2.1176513513795614,14
1140,-1.988327235472994,-2.3693291132450836,14
1150,-1.9638505543641052,-2.292011629961545,15
1160,-1.9017314833381689,-2.257135483129717,19
1170,-1.6699870193178064,-2.3022656280714937,19
1180,-1.7533194356720576,-2.1038301404353486,17
1190,-1.898352346638883,-2.0434461378900415,18
1200,-1.2484533712816335,-1.9135749760116956,13
1210,-1.3424639224094186,-1.927044033333957,18
1220,-1.7479005550519455,-1.9347053501943394,14
1230,-1.349112274838125,-2.1147022778733904,15
1240,-1.5878288144764534,-2.008710719424076,22
1250,-1.997945295812436,-2.4251252755011334,17
1260,-2.069142021460086,-2.5360449546556785,14
1270,-1.8278708904919356,-2.3446632838290964,16
1280,-1.8703745097082742,-2.220786742835046,16
1290,-1.4114696475849264,-2.1427225795658984,15
1300,-1.7144794096236353,-2.073576008412101,20
1310,-1.4579483815742984,-1.8855563497289145,21
1320,-1.6491234936150896,-2.077384419456214,24
1330,-1.087912793959883,-1.8503377429286707,29
1340,-1.3945708216036716,-2.0507613972152017,14
1350,-1.5376769554294776,-2.220783664960897,14
1360,-1.6208536654008103,-2.1194745392103247,13
1370,-1.7565913012229633,-2.0099826834408328,17
1380,-1.606702639682944,-2.540726154508808,15
1390,-1.9542491915322926,-2.190909586261378,12
1400,-1.7404776240832693,-1.996617812755893,17
1410,-1.6788378526678243,-2.0725833149697643,20
1420,-1.6372417606882457,-1.899302936717773,16
1430,-1.577585741420299,-2.2902692245637613,19
1440,-1.4398046056465033,-2.00670374482874,15
1450,-0.9258047698688148,-1.9199131165028833,17
1460,-2.2531450409798897,-2.3338087530979803,14
1470,-1.6311686524252107,-2.041521790273828,20
1480,-1.8287801599147477,-2.036931610009716,18
1490,-2.036910986899291,-2.276334702825386,12
1500,-1.8559148859762817,-2.148705092820073,16
1510,-1.8333700546298368,-2.0081482901659267,16
1520,-1.7202582579356245,-1.8973700257889377,20
1530,-1.8544354425561655,-2.268555272358117,11
1540,-1.8870029340684082,-2.332005568049722,14
1550,-1.286482655640595,-1.8687576555054393,20
1560,-1.5353898801234152,-1.893007256898349,20
1570,-1.7952110480290346,-2.709658910246089,14
1580,-1.4258883530222741,-2.2777317941414865,15
1590,-0.6425599586325355,-3.6552343092824553,14
1600,-2.105183404183684,-2.4388997649064157,16
1610,-1.3171590356762466,-1.9266521059839545,11
1620,-1.7563217313344994,-2.3634045185064236,21
1630,-1.37508276142899,-1.9312015687059811,13
1640,-1.2904204456537731,-1.8333812136128598,14
1650,-1.3716181762637865,-1.9513854313834904,15
1660,-1.4398993558913045,-1.7603207368377483,17
1670,-0.7721197148078272,-1.7258243499163175,16
1680,-1.1988414662235143,-2.326951052378583,10
1690,-1.867004870331221,-2.0404794055818996,19
1700,-2.135148315110234,-2.4601328928986907,17
1710,-1.6035486213252321,-2.073687192127929,19
1720,-1.8281683592203124,-2.1509565807062763,24
1730,-1.9938738630633948,-2.1210951762574712,14
1740,-1.3917428290241043,-1.9031781115127435,17
1750,-1.6535986391682171,-2.183236177207143,17
1760,-1.572165733000168,-1.8370136157696466,16
1770,-1.8625601986834364,-2.159864662652158,22
1780,-1.745222311174103,-1.937796416112733,19
1790,-1.5626305950383501,-1.9110671430288575,18
1800,-1.64740025756642,-1.9186949194181186,20
1810,-1.1920735638043478,-1.882856130302733,17
1820,-1.2803386170448063,-2.194764355820256,16
1830,-1.9534450623443955,-2.119637043751564,21
1840,-1.032526232229419,-1.6272991063223081,14
1850,-1.8652951614900273,-2.0743919479989503,14
1860,-1.6710047941786648,-2.3517380842412834,17
1870,-1.5174064538998773,-2.0445388524330594,15
1880,-1.8970752519356502,-2.252387142677186,14
1890,-2.2847202129727564,-2.562063480690145,18
1900,-1.6163756260710451,-2.0199601261211706,19
1910,-1.5653584234081452,-1.803723099922683,24
1920,-2.010082682507807,-2.3575390356797046,11
1930,-1.6265149965624264,-2.247362894939085,26
1940,-1.847992306292804,-2.3261782361629564,20
1950,-1.509184086671044,-2.262328880699618,14
1960,-1.2047072713276608,-2.1431324988814286,21
1970,-1.9586761401758634,-2.0771559275084734,20
1980,-1.3784757460662918,-2.179079201213671,16
1990,-2.104653679398632,-2.2157266171557586,15
2000,-1.409018440005441,-2.1086662303758854,15
2010,-1.66733151010268,-2.074307461954171,21
2020,-1.913077052795469,-2.164650847533135,22
2030,-1.289553218865024,-2.2128576497734875,14
2040,-1.328622193166519,-2.3695382580296407,18
2050,-1.4144523513016956,-2.2710230511727696,17
2060,-0.8476973366177387,-2.070093183497669,18
2070,-1.6344718143814625,-2.187367188192675,19
2080,-1.890679115465775,-2.213571127987899,18
2090,-1.9852191635213512,-2.1620272013889426,22
2100,-1.0046120846041369,-1.8771326422604733,21
2110,-1.8075956480971749,-2.8185714079741575,17
2120,-1.4447848569680928,-1.925735277287589,18
2130,-1.381069845453275,-1.9350882644188852,13
2140,-1.0762929714469118,-1.8690369055414067,19
2150,-1.5019829801741666,-2.0138634574723993,14
2160,-1.103002425827388,-1.9361402037681887,14
2170,-1.925026057048723,-2.1876145386011427,14
2180,-0.8956518902262931,-1.8867141621004984,24
2190,-0.685695507675844,-1.9318312356201826,19
2200,-1.682894334328838,-1.9670671154354118,24
2210,-1.8628306606757166,-2.068349300074691,16
2220,-2.109684007403206,-2.2594727377660844,17
2230,-2.1211640939529777,-2.2530221137384556,14
2240,0.12208713493112855,-1.8505357891457244,18
2250,-1.8839743549174395,-3.443184925118018,15
2260,-1.5769801229946863,-2.1554634314801917,18
2270,-2.0878838185283026,-2.2850434088184692,22
2280,-1.4418513536800148,-1.888852479300592,18
2290,-1.5662603997981352,-1.9032946643364133,22
2300,-1.7009770169102791,-1.9966612957179526,12
2310,-1.456239364917249,-2.044296496883527,17
2320,-1.9177339260649477,-2.0414741488302126,16
2330,-1.6757630202967302,-1.971001224860936,16
2340,-2.0362196582455945,-2.285518321164739,14
2350,-1.9026052176379742,-2.5034677255229036,13
2360,-2.0177451286098274,-2.2685341299562345,16
2370,-1.8584094137391032,-2.0056490765338286,18
2380,-0.766938155375184,-1.9426006798472928,13
2390,0.04909045731105044,-2.143729150371693,11
2400,-1.1824484626907226,-1.731923989206608,24
2410,-0.7768628688893622,-2.1439695477088376,17
2420,-1.8774144286257544,-2.318404332260233,13
2430,-2.0692119877657786,-2.203898885968216,18
2440,-1.5322692548404453,-1.8936767270238428,18
2450,-1.879764693947417,-2.2283349321611365,13
2460,-1.8606564869525508,-2.096247338264896,16
2470,-1.1919355262175952,-1.6979503480584446,20
2480,-1.8381603828205022,-2.083615177820145,18
2490,-1.9206745662247633,-2.1606341832709273,16
2500,-1.8692531081881254,-2.4179557474259945,18
2510,-1.8170976320975134,-2.089054285482825,24
2520,-1.7374752766293984,-2.0827374342321376,17
2530,-1.5181042367490656,-1.8483982818634042,15
2540,-2.200143145624663,-2.463241740541476,17
2550,-1.6113290778211524,-2.066741738751511,17
2560,-1.877421918098456,-2.0878538069057515,15
2570,-1.489022128264828,-1.8813484312593771,15
2580,-0.6147240199673498,-1.8688863164592162,17
2590,-1.8646222296755952,-2.317056489277282,16
2600,-1.4993992051805942,-2.24921966143995,15
2610,-1.295129273661253,-2.1761836597790114,16
2620,-0.9077549182954319,-2.091161451032734,17
2630,-1.7632151830438638,-2.0980282783863387,17
2640,-0.928465560768859,-1.9693666426274863,18
2650,-1.8604074297036515,-2.0880966284075186,16
2660,-1.9976738231677778,-2.2865129340226114,15
2670,-1.90809212796145,-2.2341600389883682,18
2680,-1.8380749618073824,-2.2149063480670614,15
2690,-0.6178670330935563,-2.2315356805617106,19
2700,-1.5393115280290615,-1.8894191460537668,18
2710,-1.5678926629764534,-2.1255486548924707,11
2720,-2.023642657376955,-2.3009124615569667,17
2730,-1.9182944032464444,-2.1665969359312673,20
2740,-1.3238048375546208,-2.0171507708506065,16
2750,-1.3631085381702532,-2.1904016100519494,16
2760,-1.6587630655402128,-2.428159097422679,13
2770,-2.103153595176349,-2.551688538790843,13
2780,-1.8205289592868001,-2.215324947086625,15
2790,-0.9761462587747607,-1.9059932683009886,18
2800,-1.9336734215153986,-2.152114268164282,18
2810,-1.8543166733584995,-2.2651492318930813,19
2820,-1.9313620900844095,-2.230641322905334,17
2830,-0.23346081903599814,-1.9692319507988998,17
2840,-1.8056020754871924,-2.063412227716068,14
2850,-0.17566233727135527,-2.034605789539352,17
2860,-1.6358808073614368,-2.184488033723252,20
2870,-1.6127620145282082,-2.012725881783896,19
2880,-0.38953234297774575,-1.6804649312041118,17
2890,-1.8195983481213445,-2.17224267155843,15
2900,-1.4803633743948819,-1.9141131088395686,18
2910,-2.0256224810441754,-2.3372317519724644,21
2920,0.3635196416226605,-1.827867727559736,17
2930,-2.095725528498604,-2.300341483110544,19
2940,-0.2224654188473072,-1.8838590380042732,21
2950,-1.6523602840902174,-1.881362824550866,16
2960,-1.5231972736393082,-2.3214629344427125,12
2970,-1.7539766054350137,-2.250330738485797,19
2980,-1.276756108029451,-2.1490854058222157,24
2990,-1.929621457512626,-2.176361145219106,15
3000,-1.817698261357252,-2.1852468820479727,17
3010,-1.5805929656883255,-2.005111712617168,18
3020,-1.9774763084475235,-2.44498160089066,13
3030,-2.016036693811258,-2.1574533740367294,14
3040,-1.7886853880241969,-1.9852588494366594,19
3050,-0.7476547972314487,-1.995143861898505,20
3060,-1.1219866648521073,-2.2710825051874317,16
3070,-1.8514912664064338,-2.1493387986793335,20
3080,-0.6833233881455225,-1.669511048262819,23
3090,-0.5201213516509848,-1.885109637875503,16
3100,-1.563140834416489,-1.9333794761522236,20
3110,-0.519512408603128,-1.620717564589044,20
3120,-1.3409294148684645,-2.081316786213319,14
3130,-1.8352197655176903,-2.3216548009578513,15
3140,-1.9037713375898049,-2.470379261701797,12
3150,-1.3351368743098893,-1.856224763873783,16
3160,-1.3696916250233055,-2.037613368845528,14
3170,-1.9458489804707666,-2.2040172385433876,13
3180,-1.541760933556315,-2.096655798649562,16
3190,-1.9362212526761657,-2.331205153778099,17
3200,-0.7489870397630418,-1.7706715878757948,23
3210,-1.464841151063652,-1.9682642105776915,15
3220,-0.7991355462551146,-1.9332344131254249,22
3230,-1.3285015412175367,-1.8849183856896885,16
3240,-0.6804918793559378,-1.6640730146238472,19
3250,-1.7539466072629386,-2.1855927799433275,14
3260,-0.8219419093981339,-2.104041577359788,16
3270,2.829499721102611,-1.753779423369426,17
3280,-1.9389909842008382,-2.2774108589508364,14
3290,-1.4351850053844615,-1.8998652087884715,19
3300,-2.1818829841908847,-2.323582705263041,17
3310,-1.5240873369771366,-2.0888983113169655,16
3320,-1.6522328043817638,-2.187218826693908,23
3330,-1.99681733777749,-2.65379959594828,13
3340,-1.8593900654924687,-2.075220011796063,15
3350,-2.0009975077797097,-2.1453773141757475,17
3360,-1.7840462439337286,-2.0601391654908867,20
3370,-1.8437249562735967,-2.1295945232337052,13
3380,-1.1459977961168764,-2.2475006829076474,17
3390,-1.9061750538101985,-2.1924582468175804,15
3400,-1.9577130918980576,-2.354726349499773,19
3410,-0.124691259731462,-1.891926272394439,15
3420,-1.2246396430007267,-1.7266709262456483,16
3430,-1.6413945682457074,-1.855979417649655,19
3440,1.538841798650766,-1.782435126576982,18
3450,-1.8490996962963382,-2.04382167070457,22
3460,-1.6106896751148394,-1.973651944185589,14
3470,-1.071024490332261,-1.923253819716044,20
3480,-1.789925288187574,-2.2806348411325716,18
3490,-1.9008198819779545,-2.193445804240104,16
3500,-1.6409131177443812,-1.9899564111730845,17
3510,-1.7991955690721544,-2.0869832811885023,16
3520,-0.9920687322711248,-1.9613977618028056,15
3530,-1.415912978162686,-2.2573144137217187,20
3540,-1.76144034793001,-2.112457372287901,15
3550,-1.4724566890704738,-2.0598996977005726,14
3560,-1.3471312881940327,-2.1624014952115234,20
3570,-1.987022560026296,-2.2362548026464526,15
3580,-1.5498475022816784,-2.1700934855661727,16
3590,-1.1598759473948448,-1.841173562680307,15
3600,-1.3530318524043499,-1.8196063311437563,18
3610,-0.6435720881907177,-2.3072389244750764,14
3620,-2.019465002971147,-2.2071810117402237,18
3630,-1.7724252884358433,-1.980719276271353,18
3640,-1.3789068455438218,-2.153633905780403,17
3650,-1.2616154981505519,-2.054543203409229,14
3660,-1.8773060122433443,-2.4743803813459855,15
3670,-1.6438051567884513,-2.135474324512198,20
3680,-1.8761086932048627,-2.3492595340327225,15
3690,-1.5857570342564742,-2.307105955607399,16
3700,-1.7944483895750865,-2.09229174406573,14
3710,-1.6961548185733268,-2.0761553229015712,18
3720,-2.020270222173636,-2.247054032366903,18
3730,-1.44168881015135,-2.127142220874263,14
3740,-1.2147093906078679,-1.842090078378497,17
3750,-1.606248220373659,-1.998071722756196,18
3760,-0.7134909424355822,-2.0887931637616632,18
3770,-1.8990902573598067,-2.2089967616321053,17
3780,-2.178125964440607,-2.7774858980642336,15
3790,-1.9437379101185477,-2.1972453286771207,15
3800,-1.8794538399940637,-2.3525004148049167,15
3810,-1.5101491905745998,-2.012128078751068,16
3820,-1.817296278322552,-2.506541369137523,17
3830,-1.5717925109602313,-2.305887730102114,20
3840,-1.813348174486395,-2.107059913783585,14
3850,-1.79523706420736,-2.2805159014169347,15
3860,-1.933730086032955,-2.224220231428208,20
3870,-1.536265531615216,-1.892919106404268,15
3880,-1.6776647933777684,-2.311932415900689,13
3890,-1.708515929033307,-2.127502031704367,20
3900,-0.972751856449841,-1.9717005140659638,20
3910,-1.6434627216273903,-2.2683999735465883,13
3920,-1.1173268390161284,-2.0779681419057594,14
3930,-1.8939923350185799,-2.4134577304516216,12
3940,-2.2995547645793692,-2.7393869025382696,13
3950,-1.4165042338624327,-2.1752296406941753,20
3960,-1.5101984705181692,-2.2314035654285136,20
3970,-1.8549458973074597,-2.197375899938649,25
3980,-0.7405438867053937,-2.069137815620237,14
3990,-1.7343637648362131,-2.027929321246661,21
4000,-2.0421722190364786,-2.3270176179392053,14
4010,-1.679868923064679,-2.1247927861130473,15
4020,-1.8932655899688315,-2.183476564299549,15
4030,-1.6593417988276342,-2.3403633571471008,13
4040,-0.4200455417154667,-2.242683295312317,16
4050,-1.8516257960331965,-2.0635451900138504,14
4060,-1.8955696090079754,-2.2511639274999196,19
4070,-1.981769954105617,-2.37687729639579,14
4080,-1.8131853456499092,-2.0705475475417146,16
4090,-1.4412366359743092,-2.0356164480699896,16
4100,-1.7383357867822269,-1.9464615000553545,20
4110,-1.2922680438465606,-1.844899792344636,15
4120,-1.7758740450985948,-2.057797639656773,18
4130,-1.5465913527380704,-1.8896033322021566,17
4140,-1.879874656620401,-2.1375571944807934,15
4150,-1.2457008658310031,-2.1299439081470726,15
4160,-0.5126898939536835,-1.933970726615479,14
4170,-1.3638972683565016,-1.7932873480903044,18
4180,-1.6144003924804498,-2.0279764086003405,17
4190,-1.8742512781742167,-2.07939937195961,15
4200,-2.102537316588329,-2.356121844248343,18
4210,-1.6854651890342296,-2.0122242222462887,18
4220,-1.8172079682642963,-1.9548557292526805,17
4230,-1.7089719608486398,-1.9888493738932806,16
4240,-2.2260219588071415,-2.4462313789577923,15
4250,-0.8932578455360409,-1.6389603355550741,21
4260,-1.5656753817823086,-2.3472461357492684,16
4270,-1.7062894818209395,-2.0793991616430345,11
4280,-1.7227090480263474,-2.029686126870986,22
4290,-1.8109580443681494,-2.16809803456219,19
4300,-1.9031860796235398,-2.211492950376162,17
4310,-1.591955257443905,-2.4404133136813693,14
4320,-0.7379391345468771,-1.9491579884223142,20
4330,-1.8353303099584246,-2.0535848947039286,17
4340,-1.7082499915776188,-2.1786825420141476,18
4350,-1.8152260559445514,-2.1007020208688054,17
4360,-1.6068381421053253,-2.0794282130004698,15
4370,-1.876704073795017,-2.3133931287289675,20
4380,-1.9888909676902498,-2.2124209287091814,15
4390,-1.578432138744819,-2.648339038480217,14
4400,-1.7408015141387938,-2.023119510028402,19
4410,-2.01352568610786,-2.2645631514950306,12
4420,-1.7990790086254314,-2.1108895157667984,14
4430,-2.0023226102141596,-2.2812549290964674,15
4440,-1.8028973366221326,-2.1997082168793813,18
4450,-1.914303034324166,-2.134341256574483,16
4460,-1.6257281275170021,-2.153192083860646,17
4470,-1.400668934493833,-2.1346551797949904,18
4480,-1.5528666413374161,-1.965325889291958,22
4490,-1.4203940999557676,-1.9078069301282816,12
4500,-0.3721722508879406,-1.8522731094468492,18
4510,-1.9167717819381576,-2.0695383602755024,16
4520,-0.8042300904080912,-2.0098012610899056,21
4530,-1.613824807081076,-2.204836496751275,13
4540,-2.087923639369615,-2.6916064966696984,16
4550,-1.6708171372562175,-2.2246264097661737,16
4560,-1.721408083137707,-2.178895812916101,11
4570,-1.8074668070069828,-2.4173633625419897,15
4580,-1.790300902239659,-1.9769769640218342,15
4590,-1.0908378842908766,-1.948663527590327,19
4600,-1.4512291740439305,-2.507102918745759,14
4610,-0.4926387263268195,-1.9897865173431268,18
4620,-1.7988237179883186,-1.9869272083607015,17
4630,-2.0001770030021753,-2.269486527110545,15
4640,-1.3268962478264084,-1.9967087174574591,17
4650,-1.5873490384877815,-1.8957112004482763,24
4660,-2.157685698943984,-2.5904131464998845,18
4670,-1.3753275976505441,-1.8784668374320712,19
4680,-1.3305480036975865,-2.1593936819240875,16
4690,-1.6066676398157664,-2.2079741685098773,17
4700,-1.5598892992327398,-1.9323227029123748,23
4710,-1.5766180452415361,-1.9712535726209282,16
4720,0.4121545533288695,-1.8900545896405065,20
4730,-0.7927329163179739,-1.7884060040305676,17
4740,-1.491327496690154,-2.1325641401737205,15
4750,-1.8229739750175924,-2.0814828984807114,15
4760,-1.340855105460208,-2.0908161053252483,17
4770,-1.8092349650440647,-2.221705176847261,23
4780,-1.3904652979575154,-2.082431874087972,19
4790,-1.6249491036444637,-2.208260015593605,20
4800,-1.7757521883643994,-2.0303527660536034,19
4810,-1.7611082003663459,-2.073986292482836,18
4820,-1.5808860376689857,-2.1654776445898403,16
4830,-1.886654720290536,-2.198258717021936,11
4840,-1.9476731891735626,-2.3271687581341434,12
4850,-1.97254500254647,-2.259229924377507,21
4860,-1.9280353408889725,-2.1379258898549587,19
4870,-1.3776480339102908,-1.9788376618558283,17
4880,-1.868514274578803,-2.053791776396243,18
4890,-1.6461190316212857,-2.149830018787403,13
4900,-1.1330841061592118,-2.324745417620514,18
4910,-1.0668560505255904,-1.753743639969541,14
4920,-1.9077849884377212,-2.567046341018921,18
4930,-1.7745948824192581,-2.3018432185856983,15
4940,-1.92868196436918,-2.375836287000514,13
4950,-1.851900722908535,-2.231335989987264,15
4960,0.36165516812925613,-1.9303697412162188,18
4970,-0.9349827708539125,-1.828731502193232,15
4980,-1.6617925792728594,-2.613593233662146,14
4990,-1.226617503870434,-2.210680193203914,14
5000,-1.8979598220735987,-2.3203786568152407,13
