iteration,logZs,elbos,Ts
10,-3.4745330529509726,-5.254511885695332,50
20,-1.881858090380625,-5.463700721819773,47
30,-4.325492313764509,-5.318953453385656,45
40,-1.6453861731467323,-4.9233812803236745,49
50,-5.1571590796964895,-6.500509623743854,40
60,-3.857624504984873,-5.7112025645718605,49
70,-4.983637083310924,-6.2146545875902905,46
80,-3.77183064216494,-5.345880371055949,52
90,-2.4602862164029875,-5.296896502245046,45
100,-5.685668369616648,-6.686627533578752,42
110,-2.9018247602499216,-5.414751356061846,44
120,-3.018075712603056,-5.251948185211464,49
130,-3.8873068998872466,-5.785536926971873,47
140,-3.947675309115041,-6.052778313714745,45
150,-4.1756429902584085,-6.1215353955506675,41
160,-3.7974516298658827,-5.121511117116734,49
170,-2.922035388436366,-5.277684613468697,54
180,-4.22194788522691,-5.816483200726281,40
190,-3.5378176309733163,-5.759049868110545,43
200,-3.7872114818731797,-5.420968383003294,49
210,-3.538638649566286,-6.068204130626386,43
220,-4.827152572577166,-6.069178725500022,42
230,-4.267108157398128,-5.40458704970683,46
240,-4.873050287320397,-6.467643240704168,45
250,-2.4476828290794526,-4.87768133051626,49
260,-4.13442429903928,-5.340265655857466,51
270,-3.989019726234819,-5.719079561659099,50
280,-5.970583041954862,-7.179329266802965,38
290,-4.700076618455231,-6.125973059406743,43
300,-4.125008768324683,-5.672856719973109,42
310,-3.7627796541445626,-5.621963763547213,47
320,-1.860364379596795,-6.006298325560207,44
330,-1.094396547826383,-5.227373400144698,44
340,-4.4862433613381505,-5.7312565727382925,49
350,-3.571904504601858,-5.721864202586206,48
360,-4.033444758171315,-5.424470401648328,50
370,-3.0720602029770236,-5.481505943003478,48
380,-3.133372572550223,-5.531865778588658,49
390,-3.2726825548193763,-5.735222657466301,42
400,-3.5436997645777675,-5.509210209758658,49
410,-2.8491504612505922,-5.559064940325332,44
420,-4.233200639562429,-5.988634750101027,44
430,-2.3870723905868703,-5.853282167163889,43
440,-4.154734570625704,-5.949547665164442,42
450,-2.3251730930197136,-5.425648477840511,50
460,-4.464584666888595,-5.9048229620258645,46
470,-2.437374298522649,-4.871196382488838,52
480,-3.6782478957551197,-5.803804101353972,44
490,-4.672987848208521,-6.2010039788434765,41
500,-4.311912372042831,-6.2799292057439,44
510,0.38756190234714616,-4.644374095576591,46
520,-4.615825447131729,-5.8227323146014625,45
530,-4.898779356304096,-6.202747157902052,42
540,-5.211226283431516,-6.275276728939079,41
550,-3.2594831107369204,-5.352211121554059,49
560,-4.00121072204908,-5.72077273569731,43
570,-1.3636341016238878,-4.969450673970011,50
580,-3.8598336454784947,-5.9391177120468,44
590,-3.1748125422756015,-5.2550725380151535,44
600,-2.1188675291374333,-5.22074279411317,46
610,-4.373602084810232,-6.095247744330726,43
620,-2.305153704510089,-5.051578668970252,48
630,-3.4977724935444727,-5.4423615272873676,50
640,-1.9283480654994047,-5.420754541854271,47
650,-4.214183955582584,-5.3450049510328865,47
660,-2.7452860708148443,-5.519681204068821,42
670,-2.0500243550996524,-4.923792944119139,55
680,-4.779172811311771,-6.287853632665414,40
690,-0.6588090308538925,-5.47100578033903,45
700,-3.339449232970216,-5.238518419603222,48
710,-2.9468418316642007,-5.255695159008725,48
720,-4.359349112662551,-5.805637652224956,46
730,-3.560683103741173,-5.680957694364688,41
740,-2.892221760097648,-5.553575850243224,48
750,-4.267489938061523,-6.001703643164214,49
760,-4.822642089404429,-6.45428063335566,38
770,-4.62305010639922,-5.946371215848667,43
780,-2.698113017434019,-5.110936715778518,44
790,-3.6732255918509753,-5.517284759200821,51
800,-3.6737995933022836,-5.496074331665533,48
810,-4.348882978602429,-6.1853878362932315,43
820,-1.944914038795123,-5.392746432177758,49
830,-3.269020704391401,-5.816240699737268,42
840,-3.463142774793367,-5.795559890286493,49
850,-5.7440024415756366,-6.805427689526166,39
860,-2.5986242645170776,-4.749671713487399,55
870,-1.8592761080671454,-5.2385964796237925,48
880,-1.7455792805550474,-4.900762642053157,54
890,-2.9473518477304967,-5.775375406055481,44
900,-1.2523454208994735,-4.863366475614088,45
910,-2.5791810809394793,-5.175131247559234,50
920,-4.063556892228693,-5.86573953753102,45
930,-4.018177832983484,-5.683700740421997,45
940,-3.480568965452272,-5.739496320662927,44
950,-2.242425576613729,-5.6089269542585285,44
960,-3.702888962060147,-5.69743369944996,44
970,-3.877833808340462,-6.11814174162438,44
980,-3.657430241656368,-6.079126397235156,44
990,-5.702644324371528,-6.420135427691256,40
1000,-3.0894960163597567,-5.415984563126723,47
1010,-3.8377266530459915,-6.149881112447745,43
1020,-3.002948147095849,-5.346518644715353,45
1030,-3.4795161818556344,-5.897734033211809,50
1040,-5.239375699241547,-6.290870755728764,44
1050,-4.70789293900641,-5.900515350302641,53
1060,-2.7599899691200953,-5.609289979565559,51
1070,-2.803282286243711,-5.624395180294563,45
1080,-1.51030078318756,-5.423318437598155,45
1090,-2.6092345671322192,-5.208190236422513,46
1100,-3.1045334685592603,-6.348909180286026,44
1110,-3.320401033997137,-5.247665533957214,46
1120,-5.46915496706424,-6.531847192664155,38
1130,-5.5987757284563,-6.6490964975937095,35
1140,-0.854435581534267,-5.506617583343997,48
1150,-4.194436807393539,-5.712109567130184,43
1160,-4.2413322023384925,-5.629993422861661,46
1170,-1.7658480364180325,-5.053237985494655,51
1180,-3.0096399906633815,-5.214285108990109,47
1190,-2.98215460304546,-5.608171284452288,44
1200,-3.6328674112767803,-5.922933681027129,42
1210,-2.464181369819089,-5.383589004364172,47
1220,-4.236330495939746,-5.733127399929581,45
1230,-4.073475891498589,-5.757551121941063,43
1240,-4.638889614916375,-6.11689697652115,42
1250,-4.480054605932579,-5.960777673830197,44
1260,-6.105310162514838,-6.857027159789707,38
1270,-2.948599362446389,-5.745344838339164,46
1280,-2.655101682023465,-5.5387661736765414,45
1290,-1.3153848011417262,-5.277492319940244,47
1300,1.1029322310747767,-4.7086742828517325,55
1310,-4.0629796321025164,-5.36731989307342,48
1320,-1.6600730439794038,-5.8911800264242284,45
1330,-3.083565114708169,-5.558831468553566,47
1340,-4.089729535479627,-5.764947015346634,46
1350,-4.032526652103944,-5.58343051733541,42
1360,-4.204377010335639,-6.128516603316843,42
1370,-0.7099070579547302,-5.057094617167568,53
1380,-3.7699666009593207,-5.446276778953332,47
1390,-4.002356506592106,-5.435909358375288,47
1400,-3.8126336143677193,-5.66776756697965,46
1410,-5.035746110695169,-6.844131675334022,38
1420,-2.199579828551525,-5.692940177429813,42
1430,-3.3355924537281805,-5.783186277866806,47
1440,-4.93572580068288,-6.067768229825218,46
1450,-2.242527069911716,-5.479262720841345,49
1460,-3.893914334923933,-5.496123432205845,44
1470,-4.681660819733634,-6.2706764510132915,46
1480,-4.4404125989825065,-5.824299988175787,44
1490,-4.373051321071237,-6.033422832611138,43
1500,-4.913868763034216,-6.195125347183167,42
1510,-4.733699191629867,-5.994710280899431,46
1520,-3.9268841600746693,-5.259585538333864,47
1530,-3.924867248650188,-5.965500173676136,46
1540,-3.2408104851388932,-5.35941682190115,50
1550,-4.292522373144397,-5.726483729373585,47
1560,-2.9692277499244293,-5.415576139736754,47
1570,-3.4137742861429787,-5.744095640634073,46
1580,-3.97083482815245,-5.17538493646549,48
1590,-5.040367742105769,-6.589665873550479,45
1600,-1.9574284367294053,-5.828482653278351,48
1610,-1.5391752564791479,-4.836133903418731,49
1620,-4.636959048238883,-6.127773663856693,47
1630,-3.562273533440255,-5.194119910787256,49
1640,-3.091890194073791,-5.03969410720995,56
1650,-3.7623438196567385,-5.497993702143238,44
1660,-1.196670038855704,-5.13752555987338,51
1670,-4.554647850763144,-5.772376534011431,44
1680,-1.6971383848339625,-5.354397758548887,48
1690,-4.2184874824356,-5.996218047709022,45
1700,-0.6898701877806319,-5.398540768404794,51
1710,-4.242974320878174,-5.960337376153833,47
1720,-4.143731604784564,-5.774884742671006,49
1730,-1.9929701171907526,-4.730764331376459,54
1740,-2.7862497550703447,-5.93497188553504,51
1750,-4.2110008598272115,-6.139769898871856,48
1760,-3.5719859920061636,-5.850174838374696,47
1770,-3.666562331879276,-5.934554243223455,45
1780,-4.451173031308762,-6.054990454926964,48
1790,-3.9837033690827375,-5.355666833468131,54
1800,-3.804423916819613,-5.271933110611335,45
1810,-4.153895349316186,-5.83328064876881,43
1820,-3.861487827288269,-6.052143656742342,43
1830,-5.583596693794782,-6.551692966295592,41
1840,-4.0631679749277385,-5.974460282319434,42
1850,-4.831083998086781,-6.235473531600805,41
1860,-4.840464270585987,-6.037357443953403,49
1870,-2.9230984562368203,-5.755891736226077,42
1880,-2.054338162045533,-5.477466743948854,49
1890,-3.4303358125502355,-5.8267155640855135,46
1900,-4.645398536706132,-6.100735865979696,48
1910,-3.6479521373387334,-5.356349134741713,46
1920,-4.803499059822479,-5.858991621516708,48
1930,-3.920703078212888,-6.101048389143791,43
1940,-2.795085613631487,-6.140086719656953,39
1950,-2.4705173712099655,-5.259078225516865,47
1960,-2.5325231553781635,-5.6854104454433685,46
1970,-3.393544387055755,-5.963425600207057,44
1980,-3.6944485860581784,-5.827743975383719,47
1990,-4.704139811067085,-5.828366077332965,45
2000,-4.017937112779741,-5.456415905821077,43
2010,-3.316112542237877,-5.333785170729578,46
2020,-3.8532687219475417,-5.688202031254839,47
2030,-3.8708845502328044,-5.832006177429454,43
2040,-5.772627012549842,-6.955748003441848,38
2050,-2.9578551968377482,-5.137742469724383,50
2060,-3.6399601530061005,-5.415092059862486,53
2070,-4.419042756164165,-5.992863464419476,43
2080,-2.9298358630434214,-5.725974058610752,45
2090,-5.106131384028897,-6.124051605547496,46
2100,-3.666204271157029,-5.399175066210641,46
2110,-2.6266482581057056,-5.555236244423818,44
2120,-4.081885106458717,-5.508912434456385,54
2130,-3.9833946723510336,-6.5559759637874535,43
2140,-4.552816623222855,-5.547114650253482,53
2150,-3.4480443924695665,-5.7373972934515125,48
2160,-4.7885998548342705,-6.357759479058935,40
2170,-4.564392792361224,-6.0469813545546796,44
2180,-4.755019661576756,-6.285024765719123,41
2190,-2.9863859247402025,-5.340546259366337,46
2200,-4.21184984876481,-6.045184176158839,44
2210,-4.21749040517223,-5.8904908421043585,48
2220,-3.5628731184951716,-5.777366348804699,50
2230,-2.4496653822514833,-4.959671059432056,58
2240,-3.2893259733635687,-5.528587297312346,48
2250,-3.670862180940958,-5.650138738446736,47
2260,-4.159254461879396,-6.371612056425686,41
2270,-4.530367022551898,-6.197355053358665,40
2280,-2.7622002162724084,-5.196979140033605,44
2290,-4.203555549307298,-5.203390769580361,50
2300,-2.1678633387140827,-5.735881939559025,46
2310,-3.4895612410565637,-5.360436806086942,48
2320,-3.0669294088436336,-5.560843160599065,48
2330,-0.1392765536476075,-6.254181857639943,40
2340,-2.2751765013424055,-5.678594293291519,46
2350,-3.951664557543147,-5.515737616484738,39
2360,-3.557654693393195,-5.590390650290304,50
2370,-3.779477982285316,-5.619936602502918,43
2380,-3.61862867124753,-5.423287013287757,46
2390,-5.025466597452329,-6.001496808826459,45
2400,-5.907034783508179,-6.953582532214733,35
2410,-3.723631636963068,-5.764454834196147,50
2420,-3.936176840037651,-5.715276066269377,48
2430,-4.064559909875218,-5.691920533790965,51
2440,-2.2295190901737536,-5.553729294158027,46
2450,-5.305440651227927,-6.022985333381828,46
2460,-4.001319508002924,-5.529281539111722,48
2470,-4.057558053887182,-5.5729257101909075,46
2480,-4.504132298135233,-5.703531182265394,46
2490,-4.334892926136778,-5.51773000189043,48
2500,-3.3928052461250386,-5.2730266698676,49
2510,-2.171955520993348,-5.254224332434584,46
2520,-5.195985174810802,-6.3721742026451285,42
2530,-3.8641949421371242,-5.37620644159391,48
2540,-4.96870405101566,-6.306598270814151,45
2550,-4.329675824347479,-5.475078200375511,47
2560,-4.670040031076086,-6.293347323341792,40
2570,-4.249867861366658,-5.679175406582579,52
2580,-2.259568984992295,-5.409058618900851,48
2590,-5.507755008921583,-6.851784496159132,36
2600,-3.4852712656022113,-5.890307095888823,49
2610,-5.015380289168312,-6.346469076235392,39
2620,-4.879796452601891,-5.929389440614741,47
2630,-4.910626213736643,-5.866023578560937,51
2640,-2.439779475727083,-5.448336498074568,51
2650,-3.851780760225113,-5.292727765243231,41
2660,-4.139930835212076,-5.859890245388546,45
2670,-3.6786794078158875,-5.922188868896541,45
2680,-4.236746502305066,-6.072257989302698,44
2690,-3.8074661243758596,-5.5994546284520945,47
2700,-3.899938091859287,-5.682024022510057,46
2710,-3.7258032487622863,-5.6342871715487,45
2720,-3.260964949505006,-5.083896920315517,52
2730,-2.2488671076112885,-5.176899980390294,49
2740,-4.770038277328305,-6.544884046324646,44
2750,-3.4090452329653007,-5.313359462786463,49
2760,-4.26655630066555,-5.8603534522954766,45
2770,-2.5903109450029094,-4.931729949910176,48
2780,-2.6471679367845846,-5.252382278101313,50
2790,-3.292884687641304,-5.675404874645558,43
2800,-4.488604113813077,-6.197561256926517,43
2810,-5.3035857757418885,-6.005443820087366,49
2820,-3.011719868909096,-5.129542921121233,49
2830,-3.509820961180692,-5.018072457976086,55
2840,-3.814402525470548,-6.313250843249396,39
2850,-4.425747874177781,-5.740694165336675,46
2860,-4.64587174797915,-6.174441636660606,43
2870,-3.8042745778652787,-5.6960118737653564,47
2880,-4.072576112136286,-5.769660908627884,48
2890,-5.439844147741611,-6.558459932051245,43
2900,-3.567750837369327,-5.343994131697436,49
2910,-1.0758537415229648,-5.869615055327527,43
2920,-4.5875911126291955,-5.7552685795303855,48
2930,-3.8384672079975424,-5.354835106008208,48
2940,-4.595414206753464,-6.025051961343089,46
2950,-4.462782606136168,-6.555956522216795,41
2960,-2.2980036443338854,-4.905634496716701,51
2970,-4.509712243317409,-6.3032564489100364,42
2980,-1.81939679924894,-4.920298279659848,49
2990,-5.148296243738143,-6.4227809832831415,41
3000,-2.13978444090021,-5.866789916405349,45
3010,-4.203320023311286,-5.7902336171695845,50
3020,-3.0623677542087835,-5.766404783988568,47
3030,-4.298720518902971,-5.9853086802156,41
3040,-2.88219828189005,-5.281580066837637,51
3050,-3.596578346386117,-5.938671854402367,47
3060,-4.658241214103037,-6.081020951218795,41
3070,-2.0388333157214404,-5.383731634444469,41
3080,-2.9508849044090755,-4.831394955183196,48
3090,-3.4815930782219655,-5.0909759074388425,52
3100,-3.166643868774684,-4.617906000650002,54
3110,-3.227309411452289,-6.174942324785349,44
3120,-3.544438039681537,-5.1486648651353235,51
3130,-3.6544375767712625,-5.639455361896469,45
3140,-4.994790190707352,-6.036678201776618,49
3150,-3.682812887490733,-5.8044591200085875,50
3160,-4.380810196680408,-5.500325321155531,47
3170,-3.5889260490050647,-5.210151903553252,49
3180,-3.1162556996373385,-4.720123000434322,46
3190,-2.4259653639620393,-5.324283952719805,47
3200,-4.139069597511067,-5.574221927658343,47
3210,-2.440404386649687,-5.638319909902492,49
3220,-2.840772208683715,-5.770277242236624,47
3230,-3.8760256880675428,-5.117910606710257,48
3240,-3.5788545930554703,-5.676415249604204,49
3250,-3.3275181667142086,-5.257110042085661,51
3260,-5.120239631631772,-6.743547853857487,43
3270,-4.414602268029588,-6.288663165036425,45
3280,-0.3823160878360867,-4.929167740077983,53
3290,-4.4034217543446275,-5.789378364879595,42
3300,-4.256085857088501,-6.023183988916205,46
3310,-4.027905384227154,-5.711304610172821,48
3320,-2.8888089563783685,-5.71524268951329,44
3330,-3.8972277675842077,-6.059688746444301,41
3340,-0.791684103976118,-5.421767740040549,45
3350,-4.055973338107212,-6.4110398483178415,45
3360,-4.8525410062898215,-6.426928480695717,43
3370,-3.4495727306290758,-6.425169189057899,40
3380,-3.527913162313578,-6.062391550330513,49
3390,-3.1788824409405714,-4.93635562999321,47
3400,-4.108670145138982,-6.105729819740691,42
3410,-5.097736154995337,-6.365577655838543,44
3420,-4.344207880262834,-5.946010938387768,45
3430,1.3320690547432732,-5.442793235258762,50
3440,-3.0406074137204917,-5.237987752837498,48
3450,-3.5489642744441525,-6.606903729935773,44
3460,-1.6501672582028193,-5.712957611861059,48
3470,-1.6638060439343592,-6.4970081498616405,40
3480,-4.610692610216182,-6.182204460557308,48
3490,-3.799978488821405,-5.588754976957025,44
3500,-2.717270601119094,-5.695333310176277,47
3510,-4.020855019348385,-5.585161265780792,46
3520,-1.5246382138660666,-5.927374053577756,43
3530,0.20641561844434841,-4.387574430277327,59
3540,-4.105888129642836,-6.054379214920343,46
3550,-3.6158276191752985,-5.60128541740408,48
3560,-3.840059523955939,-5.662750069391871,44
3570,-3.8057435065784366,-5.511640245910707,52
3580,-3.191905882669953,-5.810859135209079,45
3590,-3.0851512029318373,-5.129846739364303,52
3600,-1.7811051711186887,-5.838678973949998,45
3610,-2.209944665419605,-4.9328475718596705,48
3620,1.7933485502609856,-4.68811627001811,51
3630,-3.156565024595026,-5.855154248844223,43
3640,-2.662598630971396,-5.067542010215409,49
3650,-3.980955480020169,-5.918803636481838,44
3660,-3.097932448552316,-5.314861808014755,48
3670,-4.668359149993066,-6.435086619794544,41
3680,-2.174540015596916,-6.48108294323052,40
3690,-3.6869966365010196,-5.039436910602733,48
3700,-2.400636119521696,-5.347780650070463,52
3710,-5.076231979296019,-6.238565605749892,41
3720,-3.3352889522976383,-5.3617105359065516,47
3730,-5.020347868383585,-5.988845544704987,51
3740,-3.9410361100598275,-5.5734679062628505,49
3750,-3.2884289162535465,-6.179742148207146,45
3760,-5.238746373090978,-5.923688369137263,47
3770,-4.776538415455315,-5.972008106992109,46
3780,-3.4600204679321025,-5.723745007625568,46
3790,-3.451260507710819,-5.225060903370314,48
3800,-3.538692837796403,-5.539271810775824,45
3810,-2.8837114408950626,-5.474074094360544,50
3820,-3.597409051130941,-5.639113759667207,57
3830,-3.7571762474638923,-5.351976853429471,51
3840,-4.708559288915621,-6.108553409366291,40
3850,-3.345757589847192,-5.605136698548921,47
3860,-3.9099030436348934,-5.996364972835957,42
3870,-4.436542944192754,-6.428925499230008,44
3880,-3.212244722308444,-5.667381868670709,43
3890,-4.041755987473566,-5.683339128719425,51
3900,-3.48772724805886,-5.752622642009897,46
3910,-1.2167819016770283,-5.306939541094584,51
3920,-4.3031532803931105,-6.030510216601866,45
3930,-5.099056183577478,-6.119103142713688,46
3940,-2.0288143658456947,-5.126820815739439,54
3950,-3.4364790287312283,-6.169361718682427,46
3960,-4.17521930383275,-6.458951655072266,44
3970,-1.1434718046937329,-5.634223427983854,40
3980,-3.9804230403004115,-5.908765641237268,45
3990,-4.0513306130325,-5.432109763590199,43
4000,-4.997579164321987,-6.08304684750932,45
4010,-2.367343149215843,-6.428051216819485,37
4020,-3.8495602899348547,-5.999497498053641,44
4030,-3.4993817884495746,-5.253837916413807,49
4040,-4.781348631263392,-6.472892405300822,47
4050,-3.5780452771606126,-5.922668141091487,43
4060,-3.276672065792253,-5.645934522364195,46
4070,-3.630582356191362,-6.2728147579591225,47
4080,-3.7673756507265272,-5.9830923727912335,48
4090,-3.5667859667992614,-5.9757267017539055,48
4100,-2.952631001973433,-5.523608089915998,50
4110,-3.7670200656222868,-5.412564666478328,47
4120,-4.382336188126202,-6.327925944344371,41
4130,-4.5489048259898395,-6.092401423159975,44
4140,-4.293932179054279,-5.430415393184681,48
4150,-3.8300433913186795,-6.034681094178124,44
4160,-2.1685483396286394,-6.202735175218778,40
4170,-4.249992708447528,-5.9987512058649894,50
4180,-1.4348711810493135,-6.025657800793332,43
4190,0.6496712535637301,-5.818937163905502,47
4200,-2.6918222171614503,-5.306731166398733,51
4210,-2.837236299489274,-5.5047945533792735,45
4220,-3.415331774189443,-6.221284740457759,40
4230,-2.1905240855003005,-5.1209474293899815,49
4240,-2.1432779704423863,-5.872177184150706,48
4250,-4.776399268701432,-6.322847395262037,51
4260,-5.006907234484401,-6.596248729683251,38
4270,-3.949935894973077,-5.42382872939372,49
4280,-4.072077590945165,-5.142261504560819,55
4290,-3.581560472302016,-6.038115701253242,51
4300,-3.832305210608901,-5.747141007381282,48
4310,-3.7096668990520527,-6.133337576222386,50
4320,-3.8347113321544475,-5.664992419370456,44
4330,-4.449984547683179,-5.996827424644274,47
4340,-3.930772077628708,-5.876341865846253,48
4350,-5.083332880809953,-6.454986850505806,41
4360,-1.551226098132815,-5.677842821258736,45
4370,-5.1611815921136035,-6.1694708389867055,44
4380,-3.1166447148739063,-5.325036700920575,44
4390,-5.180385134323815,-6.070401726456329,47
4400,-3.7611611983448263,-5.874264734969765,43
4410,-3.1039855318261704,-5.452736228373527,47
4420,-3.6174421753495434,-5.885981937067251,45
4430,0.5572228608606831,-5.329010735496561,48
4440,-3.621103117260356,-5.547593628396873,50
4450,-3.555972179972369,-5.209073821366434,48
4460,-3.9085905961837657,-5.9415164979811035,38
4470,-4.428945707392257,-6.190545025221347,41
4480,-4.920819279693429,-6.238616579174817,42
4490,-4.442853993380295,-5.80389104710763,49
4500,-2.9615981592844376,-5.592137131860866,47
4510,-2.409223684371277,-5.478198622181703,45
4520,-4.90172665944594,-6.461519544863529,39
4530,-3.774905816187845,-5.186548410013397,47
4540,-3.845900549210444,-5.2584038784029925,43
4550,-4.4070946285750265,-5.96975968880214,46
4560,-4.378907992979197,-5.9106941750956725,44
4570,-3.750469233003834,-5.526147949660146,43
4580,-4.4123863826166225,-5.765932084102289,41
4590,-1.7465294688140873,-3.996855398261883,51
4600,-2.1923535797741076,-5.756164848431658,47
4610,-3.649602156581161,-5.462159359139699,47
4620,-2.566226740032909,-6.590035546111153,39
4630,-2.296779987199589,-4.887299627003572,50
4640,-4.09849307422321,-5.4839052212209705,43
4650,-5.677738853375889,-6.322440183790334,44
4660,-0.5063473849657285,-5.145857484676813,47
4670,-3.5075201916160825,-5.418904089392462,50
4680,-3.646241974711976,-5.717934427333324,50
4690,-1.8231091609534278,-5.612296458493836,46
4700,-3.757689404234735,-5.904409482125287,45
4710,-1.8095028351357128,-5.295240714472099,51
4720,-4.30564676155322,-5.721297488555052,48
4730,-3.9872952133241286,-5.658791474627952,43
4740,-1.445930211115242,-5.021410473379391,49
4750,-3.6671588426901383,-5.7674978524656195,45
4760,-4.444459787051139,-5.798882940796067,45
4770,-5.344402426491392,-6.325663096849042,44
4780,-3.1169276545820135,-6.234561254614601,43
4790,-2.8157568770974093,-5.762736809508805,43
4800,-4.009130469127211,-5.909884424642821,44
4810,-2.9195404813191805,-5.662047314819159,47
4820,-5.295598493153462,-6.049889196770219,39
4830,-5.405452047960414,-6.766837972970828,40
4840,-3.4991127307856624,-5.59269152436,48
4850,-1.51961783402853,-6.041305335469381,43
4860,-4.711289322367321,-6.002819924010265,44
4870,-1.8780590977198726,-5.2053963941978125,51
4880,-3.4115132888327846,-5.33051775974543,51
4890,-4.30680664083509,-6.142061937015722,43
4900,-2.9308534638933588,-4.95098157476521,56
4910,-5.1279921009125715,-6.340907445474802,38
4920,-0.9155317351353127,-5.170771267616583,52
4930,-4.163556869252213,-6.213394477040439,46
4940,-3.409043903726947,-5.371391327637182,47
4950,-4.5998491636180985,-5.928242154763528,48
4960,-3.7983052420729386,-5.274775374698372,49
4970,-4.785698082102531,-6.159826876745788,45
4980,-3.603758455945735,-5.6805590932955345,44
4990,-2.789098211145758,-4.69692808234437,51
5000,-3.7772123059478124,-6.214224889164736,45
